[array([[ 0.01775196, -0.01990942,  0.01585166, ...,  0.0128986 ,
         0.00252264, -0.00254796],
       [-0.00937449,  0.01645511,  0.01188423, ...,  0.0085643 ,
        -0.01246697,  0.01854583],
       [-0.00030719,  0.01028119, -0.02222643, ..., -0.01672353,
        -0.01518649,  0.0048652 ],
       ...,
       [ 0.01572603, -0.00703682,  0.02113143, ..., -0.00086606,
         0.02072495, -0.00935177],
       [ 0.00799699, -0.00223641,  0.02141881, ..., -0.02045039,
        -0.01358743, -0.00303743],
       [-0.00412818,  0.00850951, -0.02000219, ...,  0.01528012,
         0.0057489 , -0.00077651]]), array([ 8.43961489e-03, -1.29741513e-02, -8.06628791e-03,  2.88681112e-02,
        2.12136184e-02,  9.82095762e-03, -3.30926576e-03, -1.09593704e-02,
       -7.01847043e-03,  4.34394607e-03, -2.55754536e-03, -3.58980891e-03,
       -1.11261956e-02,  1.17020531e-02,  3.01785634e-02, -6.77448762e-03,
        1.57327681e-02,  5.87906370e-03,  7.85188106e-04,  1.43135664e-03,
       -1.08731417e-02,  1.91363254e-02,  2.63855507e-02, -1.60462711e-03,
        3.96150100e-03,  3.08856302e-02,  1.99371138e-02,  2.25417318e-02,
        1.26959419e-02,  1.62261794e-02,  6.16322885e-03,  1.14340947e-02,
       -7.65289414e-03,  6.66104108e-03,  5.47022833e-03, -1.30058688e-02,
        1.49851430e-02, -1.22784923e-02,  2.20081043e-02,  2.87357212e-02,
        1.24346569e-02,  2.96207824e-02,  2.25472757e-02,  1.37041189e-02,
        6.85303916e-03,  1.89421768e-02, -7.85934803e-03,  1.62497639e-02,
        3.76830067e-03,  1.27235988e-02, -7.84492100e-03,  1.44628268e-02,
        2.23555876e-03, -7.77454688e-03,  2.09522317e-02,  1.45168604e-02,
        2.94479019e-02,  2.27998335e-02, -1.30860065e-02, -5.65367815e-03,
       -3.32398574e-03,  1.51755663e-02,  3.66649018e-03,  1.70935812e-03,
        5.62142770e-03,  2.87649884e-02,  4.55670587e-03,  3.95353565e-03,
        2.25796959e-02, -1.24299558e-02,  2.38375402e-02,  5.35149994e-03,
       -1.06904772e-02,  2.35651029e-02, -1.03770059e-02, -1.11261042e-02,
       -9.14348269e-03,  1.94620106e-02,  2.98204767e-03,  2.09081243e-02,
       -3.06494598e-03,  2.79336459e-02,  2.06527488e-02,  1.80790880e-02,
        1.25660445e-02,  2.50387092e-02, -5.41927950e-03,  1.33055755e-02,
        4.09922668e-03, -3.61403261e-03,  2.65679951e-02,  2.14407223e-02,
        1.47707136e-02,  7.68058544e-04, -4.91304492e-05, -8.56204954e-03,
        7.46944940e-03,  2.47967279e-02,  3.06311557e-02,  3.03985688e-02,
        1.06828509e-02,  5.35540317e-04,  2.25105103e-04,  1.12784031e-03,
        1.59317122e-02,  1.03569846e-02,  5.33884242e-03,  1.37562002e-02,
        1.26265584e-02,  2.28587540e-02,  3.10014394e-02,  1.17790295e-02,
        2.86894122e-04,  9.65869752e-03,  4.87040749e-03,  2.05985222e-02,
       -1.24090061e-02, -1.25318527e-02, -3.57622684e-03,  2.53807383e-02,
       -4.13500938e-03,  2.83719161e-02,  2.63342805e-02,  2.74621393e-02,
        2.25083938e-02, -3.11235369e-03,  7.08231723e-03, -6.91200332e-03,
        8.57774019e-03,  2.84265932e-02, -8.30317052e-04,  1.77578562e-02,
       -1.06967255e-02,  2.37312305e-02,  2.13656577e-02,  2.14352901e-02,
        3.59667147e-03,  2.38080155e-02, -7.76342519e-03, -3.88392735e-03,
        3.42808190e-04,  7.86534616e-03,  1.70842899e-02, -1.14851070e-02,
        2.91611358e-02,  2.38616462e-02, -1.23487511e-03,  7.83268213e-03,
        2.72895330e-02,  8.41974724e-03,  1.95239927e-02, -1.34138405e-02,
        8.94169428e-03,  1.81839346e-02,  2.95789643e-02,  1.16650000e-02,
        3.22017670e-03,  2.84355441e-02,  2.38848683e-02, -5.97862845e-03,
        2.56382202e-02,  1.07675251e-02, -1.24287976e-02,  1.63379908e-03,
        2.88289923e-02,  1.89444357e-02,  2.95014343e-02,  1.01045081e-02,
        2.23201244e-02,  1.64984914e-02,  8.71897624e-04,  1.20892801e-02,
        2.81375073e-02,  2.43971059e-02,  2.28957258e-02, -1.38944079e-03,
        2.89922431e-03, -5.17978059e-03,  4.36518531e-03,  1.84158392e-03,
        8.39852494e-03, -4.86974499e-03, -1.08303026e-02, -1.33671220e-02,
        4.92707423e-03, -6.62318665e-03, -3.95354696e-04,  9.94951739e-03,
        3.32343158e-03,  2.25513261e-02,  3.33809907e-03,  2.02671678e-02,
        1.21646021e-02, -8.67099396e-03,  1.07112021e-02, -6.22984171e-03,
        1.56126580e-02,  3.16418980e-02, -1.00771945e-02,  2.92088872e-02,
        3.15019727e-02,  8.15511278e-03, -4.64137793e-03, -9.44445059e-03,
       -1.63522261e-04, -1.24525378e-02,  2.72074039e-02,  2.13986062e-02,
       -2.52942026e-03,  1.55440415e-02,  2.91573258e-02,  4.67755937e-03,
       -5.89381362e-04,  9.16954997e-03,  2.62837554e-02, -2.23047334e-03,
        1.73466384e-02,  2.44229560e-02,  1.28839133e-02, -1.26009686e-02,
        1.74169448e-02, -8.41642645e-05,  1.89827520e-02,  9.14330374e-04,
        1.60865149e-02,  3.50042026e-04,  1.79118293e-02,  1.05732275e-02,
       -2.25148143e-03, -1.12348657e-02,  5.92929924e-03, -1.02002832e-02,
        2.55438315e-02,  7.41334144e-03, -4.58133217e-03,  2.62749366e-02,
        9.35718437e-03,  2.08297272e-02,  8.21219608e-03,  7.07012537e-03,
        1.51190198e-02,  2.83852289e-02,  2.07295948e-02,  1.95721573e-02,
        1.65036086e-02, -4.48110154e-03,  2.71211262e-02, -7.40697587e-03,
        3.17708574e-02, -6.77579655e-03, -1.05765087e-02,  8.52669356e-03,
        4.03796089e-03,  2.81189553e-02, -1.29994206e-02,  1.37501398e-02,
        1.65906381e-02,  6.64844283e-03,  5.41022237e-03,  2.09896844e-02,
        3.17045608e-02,  2.96339462e-02,  7.48041360e-03,  1.53713167e-02,
        1.83516844e-02, -7.82605748e-03,  1.60049649e-02, -3.87346944e-03,
        2.41944839e-02,  2.55852450e-03, -5.95314069e-03,  5.25276790e-03,
        2.70593254e-03,  7.57705102e-03,  1.52459219e-03, -9.50632766e-03,
        1.97405980e-02,  1.95938520e-02,  2.53411147e-02,  2.22359667e-02,
        6.01257811e-03, -1.23378292e-03,  3.96117927e-03,  2.18388000e-02,
        7.75102885e-03,  1.44039147e-02, -1.02485848e-03,  1.53302708e-02,
        2.83808636e-02, -2.12658515e-03,  9.64920141e-03,  1.48714268e-02,
       -1.05208394e-02,  1.84737419e-02,  2.26654622e-02,  2.19587069e-02,
       -6.37845539e-03,  2.03337895e-02,  1.96485122e-02,  2.66967276e-02,
        2.50708686e-02,  9.95508500e-03,  1.61274931e-02,  1.55764278e-02,
        9.87453745e-03,  1.38137593e-02,  2.50157242e-02,  1.20501544e-02,
       -6.26359284e-03,  1.07697486e-03, -8.96713930e-03, -1.99850798e-03,
        2.96338074e-02, -3.59648635e-04,  7.30846280e-04,  1.40807560e-02,
       -4.76985303e-03, -1.42614930e-03,  5.32386337e-03, -3.52870822e-03,
       -1.17543556e-03,  1.65777249e-02, -1.04699348e-03,  1.54910291e-03,
       -1.29281626e-02, -6.99156706e-03, -1.18514165e-02,  3.22523293e-03,
       -9.46023396e-03,  2.05222181e-02, -6.20768626e-04,  1.37029082e-02,
       -2.71482034e-03,  6.32518923e-03,  1.04535085e-02,  1.63369255e-02,
        7.20589357e-03,  2.02946399e-04,  2.65959585e-02,  2.52664735e-02,
        3.81657197e-03,  2.32329425e-02,  2.29258905e-02,  2.20238995e-02,
        2.17937123e-03,  1.52070942e-03,  2.49463288e-02, -1.06008315e-02,
        1.99439209e-02,  2.25617231e-02, -1.30615500e-02,  1.66380780e-02,
       -5.81670857e-04,  3.09436161e-02, -1.25512987e-02, -1.29131158e-02,
       -2.25865262e-03,  2.55572358e-02,  8.79017656e-03,  1.18898111e-02,
        2.52396514e-02,  2.64369988e-03,  1.96786024e-02,  2.61386199e-03,
        1.24918858e-02,  2.56618555e-02, -1.01708551e-02, -1.75465979e-03,
       -1.31527705e-02, -8.47919048e-04, -1.11887263e-02, -9.12660374e-03,
        1.09071270e-02,  2.35095588e-02,  1.18864431e-02,  1.81144139e-02,
        6.50172904e-03, -5.62663593e-03,  1.17285535e-02,  1.95475146e-03,
        2.30563299e-02,  1.04329754e-02,  2.87070771e-02,  2.06880104e-02]), array([[ 0.01600635,  0.03282309,  0.03516628, ...,  0.03227558,
         0.02864804, -0.00134028],
       [-0.02546436,  0.03109668,  0.01584144, ..., -0.0090985 ,
         0.00415476,  0.03457222],
       [-0.02361274,  0.04457876,  0.01453985, ...,  0.03083919,
        -0.01471406,  0.00528672],
       ...,
       [ 0.02276989,  0.03359759, -0.03800011, ...,  0.00832896,
        -0.02825052,  0.00063827],
       [-0.03342036, -0.01537242,  0.04001072, ...,  0.0378685 ,
        -0.00568598, -0.00521474],
       [ 0.04365862,  0.04602715, -0.00566321, ...,  0.03904824,
         0.03095361,  0.00399121]]), array([ 0.02332759,  0.04695095,  0.04234351,  0.00091764,  0.02496501,
        0.03720805, -0.01094488, -0.0234313 ,  0.0013942 ,  0.0440032 ,
        0.04451325, -0.00545629,  0.0431206 ,  0.05516672, -0.02153679,
        0.0295073 , -0.02028779, -0.0177932 , -0.00098948, -0.01780008,
        0.02654932,  0.05036629, -0.02411801, -0.00254291,  0.0089998 ,
        0.00286221, -0.00339989,  0.01982805,  0.04862364, -0.0230643 ,
        0.00171079,  0.01212546, -0.00087689,  0.0243882 ,  0.01788689,
       -0.01329606, -0.00461774,  0.0437129 ,  0.05339326,  0.04024539,
        0.02206727,  0.01085517, -0.03392323,  0.02625382,  0.02854527,
        0.04036576, -0.0345781 , -0.03014571, -0.01559379, -0.00418403,
       -0.03202059,  0.01681838, -0.01822016, -0.0013792 , -0.03306468,
        0.00390227, -0.018004  , -0.02421588, -0.00736339, -0.00646373,
        0.00624564,  0.05541865, -0.03450014,  0.04503181,  0.0180335 ,
        0.05234232,  0.00208209,  0.02232764, -0.01857516, -0.00414841,
        0.03764065,  0.00308754, -0.01378496,  0.00513283,  0.02604011,
        0.02952416, -0.02066205,  0.03480249, -0.01610055,  0.00389021,
       -0.02994439,  0.02754751,  0.02374463, -0.03211007, -0.02114733,
        0.01519172, -0.0220758 ,  0.03333012,  0.02712462,  0.03516705,
        0.03201318,  0.03804655, -0.00045558,  0.01129753, -0.01956312,
        0.04119549,  0.035535  ,  0.03073409,  0.02580409, -0.01590174,
        0.04858374,  0.01469883,  0.02487429, -0.03383309,  0.01678265,
       -0.01286401, -0.01385097,  0.03010795,  0.04978484, -0.00777662,
        0.05450332,  0.01328097,  0.03277645, -0.00818264,  0.02052746,
       -0.00494847,  0.00252935, -0.00572868, -0.00049081,  0.02351932,
        0.00120773,  0.0313499 , -0.00524038, -0.00547024,  0.01666308,
        0.02032598, -0.03105493,  0.04666496,  0.00865993, -0.02479617,
        0.04188719,  0.05277382,  0.05109765,  0.00227   , -0.02112968,
       -0.03313588, -0.01115318, -0.01977221,  0.03529259,  0.03362617,
       -0.01222749, -0.00595579, -0.01920777, -0.02173129, -0.00125927,
       -0.01291941,  0.04529405, -0.03465795,  0.01236254,  0.0078516 ,
        0.04787515, -0.00942376,  0.03276227, -0.03716367,  0.00619856,
        0.05090911, -0.01088822,  0.00896126,  0.00870766,  0.03525414,
        0.00601852,  0.03576035, -0.01176422, -0.03266443, -0.03608225,
        0.05414789, -0.0090582 ,  0.03004408, -0.03480582,  0.01472743,
        0.04814283,  0.03642979,  0.00066111,  0.02883031,  0.02644639,
        0.00898156,  0.00504321, -0.0353495 ,  0.05189406, -0.00485109,
        0.0332829 ,  0.04763557,  0.04120205,  0.00895449,  0.00177215,
        0.018954  ,  0.03253722,  0.02060226,  0.04938884,  0.01327859,
       -0.02041896, -0.01090796]), array([[0., 0., 0., ..., 0., 0., 0.],
       [0., 0., 0., ..., 0., 0., 0.],
       [0., 0., 0., ..., 0., 0., 0.],
       ...,
       [0., 0., 0., ..., 0., 0., 0.],
       [0., 0., 0., ..., 0., 0., 0.],
       [0., 0., 0., ..., 0., 0., 0.]]), array([0.05      , 0.00909091, 0.05      , 0.05      , 0.00909091,
       0.05      , 0.01042756, 0.05      , 0.00352645, 0.00909091])]