[array([[ 0.01859729, -0.02085749,  0.0166065 , ...,  0.01351281,
         0.00264277, -0.00266929],
       [-0.0098209 ,  0.01723869,  0.01245015, ...,  0.00897212,
        -0.01306063,  0.01942897],
       [-0.00032182,  0.01077077, -0.02328483, ..., -0.01751989,
        -0.01590965,  0.00509687],
       ...,
       [ 0.01647489, -0.00737191,  0.02213769, ..., -0.0009073 ,
         0.02171185, -0.00979709],
       [ 0.0083778 , -0.00234291,  0.02243875, ..., -0.02142421,
        -0.01423445, -0.00318207],
       [-0.00432476,  0.00891473, -0.02095467, ...,  0.01600775,
         0.00602266, -0.00081349]]), array([ 4.07959656e-03, -1.83538728e-02, -1.32123016e-02,  2.54808784e-02,
        1.74618859e-02,  5.52671750e-03, -8.22875461e-03, -1.62431499e-02,
       -1.21145881e-02, -2.11104112e-04, -7.44123799e-03, -8.52265695e-03,
       -1.64179192e-02,  7.49738898e-03,  2.68537330e-02, -1.18589870e-02,
        1.17200428e-02,  1.39711435e-03, -3.93932675e-03, -3.26238828e-03,
       -1.61528152e-02,  1.52856742e-02,  2.28801007e-02, -6.44294268e-03,
       -6.11760858e-04,  2.75944698e-02,  1.61245954e-02,  1.88532428e-02,
        8.53860584e-03,  1.22369499e-02,  1.69481117e-03,  7.21667061e-03,
       -1.27792224e-02,  2.21632875e-03,  9.68810632e-04, -1.83871006e-02,
        1.09368165e-02, -1.76250871e-02,  1.82942045e-02,  2.53421841e-02,
        8.26487861e-03,  2.62693911e-02,  1.88590507e-02,  9.59479128e-03,
        2.41746959e-03,  1.50822805e-02, -1.29955075e-02,  1.22616574e-02,
       -8.14161201e-04,  8.56757973e-03, -1.29803934e-02,  1.03896281e-02,
       -2.41989082e-03, -1.29066682e-02,  1.71880523e-02,  1.04462348e-02,
        2.60882781e-02,  1.91236351e-02, -1.84710544e-02, -1.06848057e-02,
       -8.24417553e-03,  1.11363075e-02, -9.20819810e-04, -2.97114863e-03,
        1.12720998e-03,  2.53728450e-02,  1.17871023e-05, -6.20105508e-04,
        1.88930147e-02, -1.77837632e-02,  2.02107564e-02,  8.44428511e-04,
       -1.59614523e-02,  1.99253459e-02, -1.56330538e-02, -1.64178234e-02,
       -1.43407914e-02,  1.56268683e-02, -1.63785482e-03,  1.71418445e-02,
       -7.97280055e-03,  2.45019147e-02,  1.68743083e-02,  1.41780922e-02,
        8.40252276e-03,  2.14691239e-02, -1.04392452e-02,  9.17726961e-03,
       -4.67476816e-04, -8.54803416e-03,  2.30712329e-02,  1.76998043e-02,
        1.07121761e-02, -3.95727200e-03, -4.81337476e-03, -1.37316709e-02,
        3.06323270e-03,  2.12156197e-02,  2.73278774e-02,  2.70842150e-02,
        6.42965337e-03, -4.20086253e-03, -4.52608037e-03, -3.58035777e-03,
        1.19284604e-02,  6.08826954e-03,  8.31168251e-04,  9.64935259e-03,
        8.46591833e-03,  1.91853613e-02,  2.77157936e-02,  7.57803087e-03,
       -4.46134901e-03,  5.35673073e-03,  3.40426891e-04,  1.68174994e-02,
       -1.77618159e-02, -1.78905123e-02, -8.50842812e-03,  2.18274401e-02,
       -9.09381935e-03,  2.49610550e-02,  2.28263891e-02,  2.40079554e-02,
        1.88183174e-02, -8.02246577e-03,  2.65766567e-03, -1.20030511e-02,
        4.22429925e-03,  2.50183357e-02, -5.63176072e-03,  1.38415637e-02,
       -1.59679982e-02,  2.00993844e-02,  1.76211652e-02,  1.76941134e-02,
       -9.93963225e-04,  2.01798258e-02, -1.28950169e-02, -8.83078103e-03,
       -4.40277237e-03,  3.47798169e-03,  1.31359227e-02, -1.67939217e-02,
        2.57878565e-02,  2.02360103e-02, -6.05558345e-03,  3.44376223e-03,
        2.38271298e-02,  4.05878283e-03,  1.56918018e-02, -1.88144996e-02,
        4.60558449e-03,  1.42879315e-02,  2.62255817e-02,  7.45857145e-03,
       -1.38838632e-03,  2.50277128e-02,  2.02603382e-02, -1.10252298e-02,
        2.20971831e-02,  6.51835962e-03, -1.77825498e-02, -3.05030573e-03,
        2.54398967e-02,  1.50846469e-02,  2.61443597e-02,  5.82377038e-03,
        1.86210827e-02,  1.25222291e-02, -3.84848820e-03,  7.90305535e-03,
        2.47154838e-02,  2.07969680e-02,  1.92240937e-02, -6.21750940e-03,
       -1.72462215e-03, -1.01883416e-02, -1.88853485e-04, -2.83262637e-03,
        4.03654994e-03, -9.86354238e-03, -1.61079361e-02, -1.87655564e-02,
        3.99792052e-04, -1.17004812e-02, -5.17608587e-03,  5.66139917e-03,
       -1.28021453e-03,  1.88632940e-02, -1.26484860e-03,  1.64703662e-02,
        7.98196409e-03, -1.38458032e-02,  6.45935457e-03, -1.12884056e-02,
        1.15942131e-02,  2.83867503e-02, -1.53189657e-02,  2.58378819e-02,
        2.82401619e-02,  3.78154672e-03, -9.62430068e-03, -1.46560911e-02,
       -4.93321380e-03, -1.78074206e-02,  2.37410898e-02,  1.76556826e-02,
       -7.41177361e-03,  1.15223292e-02,  2.57838652e-02,  1.38395528e-04,
       -5.37935190e-03,  4.84429044e-03,  2.27734581e-02, -7.09859111e-03,
        1.34107640e-02,  2.08240491e-02,  8.73552823e-03, -1.79629195e-02,
        1.34844183e-02, -4.85007685e-03,  1.51247878e-02, -3.80403485e-03,
        1.20906347e-02, -4.39519407e-03,  1.40028687e-02,  6.31480976e-03,
       -7.12059960e-03, -1.65317641e-02,  1.44974206e-03, -1.54479157e-02,
        2.19982997e-02,  3.00445294e-03, -9.56139561e-03,  2.27642193e-02,
        5.04085982e-03,  1.70597142e-02,  3.84134828e-03,  2.64489324e-03,
        1.10770683e-02,  2.49750017e-02,  1.69548136e-02,  1.57422600e-02,
        1.25275899e-02, -9.45639209e-03,  2.36507036e-02, -1.25215938e-02,
        2.85218506e-02, -1.18603583e-02, -1.58420568e-02,  4.17082182e-03,
       -5.31660020e-04,  2.46960485e-02, -1.83803454e-02,  9.64300363e-03,
        1.26187637e-02,  2.20313058e-03,  9.05947245e-04,  1.72272884e-02,
        2.84523970e-02,  2.62831818e-02,  3.07471901e-03,  1.13413794e-02,
        1.44636694e-02, -1.29606316e-02,  1.20052013e-02, -8.81982513e-03,
        2.05846975e-02, -2.08154576e-03, -1.09985283e-02,  7.40994939e-04,
       -1.92711829e-03,  3.17595821e-03, -3.16471294e-03, -1.47209147e-02,
        1.59187217e-02,  1.57649878e-02,  2.17859297e-02,  1.85329175e-02,
        1.53698659e-03, -6.05443925e-03, -6.12097908e-04,  1.81168381e-02,
        3.35822070e-03,  1.03279107e-02, -5.83556603e-03,  1.12983789e-02,
        2.49704285e-02, -6.98975587e-03,  5.34678243e-03,  1.08176852e-02,
       -1.57837365e-02,  1.45915391e-02,  1.89828652e-02,  1.82424549e-02,
       -1.14440961e-02,  1.65401604e-02,  1.58222509e-02,  2.32060955e-02,
        2.15028148e-02,  5.66723191e-03,  1.21335642e-02,  1.15562577e-02,
        5.58284876e-03,  9.70965262e-03,  2.14450444e-02,  7.86206651e-03,
       -1.13237639e-02, -3.63364539e-03, -1.41560507e-02, -6.85557978e-03,
        2.62830363e-02, -5.13867952e-03, -3.99625628e-03,  9.98936338e-03,
       -9.75889365e-03, -6.25596593e-03,  8.15475909e-04, -8.45864671e-03,
       -5.99331345e-03,  1.26052356e-02, -5.85875508e-03, -3.13903505e-03,
       -1.83056941e-02, -1.20864036e-02, -1.71776745e-02, -1.38308931e-03,
       -1.46726261e-02,  1.67375618e-02, -5.41223380e-03,  9.59352290e-03,
       -7.60600226e-03,  1.86448395e-03,  6.18938988e-03,  1.23529696e-02,
        2.78712660e-03, -4.54929425e-03,  2.31005279e-02,  2.17077341e-02,
       -7.63591272e-04,  1.95773683e-02,  1.92556948e-02,  1.83107519e-02,
       -2.47875395e-03, -3.16878060e-03,  2.13723445e-02, -1.58675378e-02,
        1.61317267e-02,  1.88741861e-02, -1.84454333e-02,  1.26684627e-02,
       -5.37127423e-03,  2.76552168e-02, -1.79108843e-02, -1.82899308e-02,
       -7.12811227e-03,  2.20123422e-02,  4.44685164e-03,  7.69408785e-03,
        2.16796348e-02, -1.99231442e-03,  1.58537739e-02, -2.02357315e-03,
        8.32483272e-03,  2.21219438e-02, -1.54170863e-02, -6.60011978e-03,
       -1.85409977e-02, -5.65020091e-03, -1.64834276e-02, -1.43231087e-02,
        6.66460920e-03,  1.98671569e-02,  7.69055947e-03,  1.42151003e-02,
        2.04943042e-03, -1.06564757e-02,  7.52515126e-03, -2.71406990e-03,
        1.93923456e-02,  6.16787899e-03,  2.53121760e-02,  1.69112490e-02]), array([[ 0.01676855,  0.0343861 ,  0.03684086, ...,  0.03381252,
         0.03001224, -0.0014041 ],
       [-0.02667694,  0.03257747,  0.01659579, ..., -0.00953177,
         0.00435261,  0.03621852],
       [-0.02473715,  0.04670156,  0.01523222, ...,  0.03230772,
        -0.01541473,  0.00553847],
       ...,
       [ 0.02385417,  0.03519748, -0.03980964, ...,  0.00872558,
        -0.02959579,  0.00066867],
       [-0.0350118 , -0.01610444,  0.04191599, ...,  0.03967177,
        -0.00595674, -0.00546306],
       [ 0.0457376 ,  0.04821892, -0.00593288, ...,  0.04090768,
         0.03242759,  0.00418127]]), array([ 0.01967652,  0.04442481,  0.03959797, -0.00380057,  0.02139191,
        0.03421795, -0.01622796, -0.02930898, -0.00330131,  0.04133668,
        0.04187102, -0.01047801,  0.04041205,  0.0530318 , -0.02732425,
        0.02615051, -0.02601578, -0.0234024 , -0.0057985 , -0.02340961,
        0.02305167,  0.04800278, -0.03002839, -0.0074259 ,  0.00466645,
       -0.0017634 , -0.00832369,  0.01601034,  0.04617715, -0.0289245 ,
       -0.00296965,  0.00794095, -0.00568055,  0.02078764,  0.01397674,
       -0.01869111, -0.00959953,  0.04103256,  0.05117389,  0.03739993,
        0.01835619,  0.00661018, -0.04030052,  0.02274209,  0.02514266,
        0.03752603, -0.04098658, -0.03634312, -0.02109826, -0.00914518,
       -0.03830728,  0.01285735, -0.02384969, -0.00620678, -0.0394011 ,
       -0.00067381, -0.02362323, -0.03013092, -0.01247594, -0.01153343,
        0.00178114,  0.05329572, -0.0409049 ,  0.04241427,  0.01413034,
        0.0500729 , -0.00258066,  0.01862896, -0.0242216 , -0.00910786,
        0.03467115, -0.00152734, -0.01920329,  0.00061534,  0.02251821,
        0.02616817, -0.02640787,  0.03169785, -0.02162915, -0.00068645,
       -0.03613222,  0.02409739,  0.02011342, -0.03840103, -0.02691625,
        0.01115323, -0.02788893,  0.03015536,  0.02365436,  0.03207977,
        0.02877571,  0.03509639, -0.00523918,  0.0070736 , -0.0252566 ,
        0.03839528,  0.03246524,  0.02743572,  0.02227095, -0.02142087,
        0.04613535,  0.01063687,  0.02129687, -0.0402061 ,  0.01281992,
       -0.01823849, -0.01927244,  0.02677975,  0.04739364, -0.01290884,
        0.05233681,  0.00915149,  0.02957533, -0.0133342 ,  0.01674305,
       -0.00994602, -0.00211211, -0.01076338, -0.00527609,  0.01987738,
       -0.00349666,  0.02808085, -0.01025183, -0.01049263,  0.01269466,
        0.01653198, -0.03729564,  0.0441252 ,  0.00431041, -0.03073885,
        0.03911991,  0.05052495,  0.04876896, -0.00238381, -0.02689776,
       -0.03947568, -0.01644619, -0.02547565,  0.03221128,  0.03046551,
       -0.01757166, -0.0110013 , -0.02488433, -0.02752802, -0.00608114,
       -0.01829653,  0.04268901, -0.04107023,  0.00818933,  0.00346358,
        0.04539301, -0.01463441,  0.02956047, -0.04369528,  0.00173183,
        0.04857145, -0.01616861,  0.00462608,  0.0043604 ,  0.03217101,
        0.00154321,  0.03270132, -0.01708632, -0.03898178, -0.04256236,
        0.05196445, -0.01425145,  0.02671284, -0.04122514,  0.01066683,
        0.04567344,  0.03340264, -0.00406931,  0.02544128,  0.02294383,
        0.00464735,  0.00052145, -0.04179472,  0.0496033 , -0.009844  ,
        0.03010589,  0.04514203,  0.03840215,  0.00461899, -0.00290536,
        0.01509467,  0.0293247 ,  0.01682141,  0.04697879,  0.00914899,
       -0.0261532 , -0.01618929]), array([[0., 0., 0., ..., 0., 0., 0.],
       [0., 0., 0., ..., 0., 0., 0.],
       [0., 0., 0., ..., 0., 0., 0.],
       ...,
       [0., 0., 0., ..., 0., 0., 0.],
       [0., 0., 0., ..., 0., 0., 0.],
       [0., 0., 0., ..., 0., 0., 0.]]), array([2.47952204e-05, 4.76190476e-03, 2.47952204e-05, 2.47952204e-05,
       4.76190476e-03, 2.47952204e-05, 6.16220236e-03, 2.47952204e-05,
       2.47952204e-05, 4.76190476e-03])]