[array([[ 0.01933382, -0.02168353,  0.01726418, ...,  0.01404798,
         0.00274743, -0.00277501],
       [-0.01020985,  0.01792141,  0.01294322, ...,  0.00932745,
        -0.01357789,  0.02019843],
       [-0.00033456,  0.01119734, -0.024207  , ..., -0.01821375,
        -0.01653974,  0.00529873],
       ...,
       [ 0.01712736, -0.00766386,  0.02301443, ..., -0.00094323,
         0.02257172, -0.0101851 ],
       [ 0.0087096 , -0.0024357 ,  0.02332741, ..., -0.0222727 ,
        -0.01479819, -0.0033081 ],
       [-0.00449604,  0.00926779, -0.02178456, ...,  0.01664172,
         0.00626118, -0.0008457 ]]), array([ 2.80768697e-04, -2.30411549e-02, -1.76959571e-02,  2.25296261e-02,
        1.41930497e-02,  1.78520137e-03, -1.25150419e-02, -2.08468390e-02,
       -1.65547698e-02, -4.17986071e-03, -1.16963365e-02, -1.28205840e-02,
       -2.10285299e-02,  3.83391923e-03,  2.39568512e-02, -1.62890459e-02,
        8.22380685e-03, -2.50795042e-03, -8.05573573e-03, -7.35198782e-03,
       -2.07529267e-02,  1.19306514e-02,  1.98258473e-02, -1.06585048e-02,
       -4.59638505e-03,  2.47269240e-02,  1.28027972e-02,  1.56395099e-02,
        4.91637241e-03,  8.76118551e-03, -2.19846363e-03,  3.54208331e-03,
       -1.72457263e-02, -1.65629189e-03, -2.95321667e-03, -2.30756986e-02,
        7.40956167e-03, -2.22835064e-02,  1.50583314e-02,  2.23854389e-02,
        4.63180449e-03,  2.33493670e-02,  1.56455478e-02,  6.01438697e-03,
       -1.44718508e-03,  1.17192025e-02, -1.74705771e-02,  8.78687157e-03,
       -4.80680125e-03,  4.94649378e-03, -1.74548645e-02,  6.84070246e-03,
       -6.47612412e-03, -1.73782194e-02,  1.39083712e-02,  6.89955098e-03,
        2.31610812e-02,  1.59206107e-02, -2.31629774e-02, -1.50683623e-02,
       -1.25310736e-02,  7.61695337e-03, -4.91768396e-03, -7.04921393e-03,
       -2.78854408e-03,  2.24173141e-02, -3.94814212e-03, -4.60506018e-03,
        1.56808569e-02, -2.24484667e-02,  1.70507863e-02, -3.08252482e-03,
       -2.05539851e-02,  1.67540725e-02, -2.02125807e-02, -2.10284303e-02,
       -1.88691396e-02,  1.22853581e-02, -5.66311639e-03,  1.38603334e-02,
       -1.22489511e-02,  2.15118915e-02,  1.35822017e-02,  1.07792048e-02,
        4.77489990e-03,  1.83589902e-02, -1.48130767e-02,  5.58032979e-03,
       -4.44638679e-03, -1.28469662e-02,  2.00245491e-02,  1.44403906e-02,
        7.17602470e-03, -8.07439168e-03, -8.96439950e-03, -1.82358955e-02,
       -7.75847193e-04,  1.80954462e-02,  2.44497735e-02,  2.41964611e-02,
        2.72389706e-03, -8.32762936e-03, -8.66572712e-03, -7.68255016e-03,
        8.44047859e-03,  2.36899308e-03, -3.09631023e-03,  6.07110913e-03,
        4.84080619e-03,  1.59847816e-02,  2.48530528e-02,  3.91775486e-03,
       -8.59843214e-03,  1.60848245e-03, -3.60648690e-03,  1.35231430e-02,
       -2.24256502e-02, -2.25594435e-02, -1.28057916e-02,  1.87314971e-02,
       -1.34143666e-02,  2.19892156e-02,  1.97700085e-02,  2.09983695e-02,
        1.56032012e-02, -1.23005832e-02, -1.19747629e-03, -1.64388155e-02,
        4.31202190e-04,  2.20487649e-02, -9.81519679e-03,  1.04293484e-02,
       -2.05607902e-02,  1.69350036e-02,  1.43586370e-02,  1.44344744e-02,
       -4.99372414e-03,  1.70186308e-02, -1.73661066e-02, -1.31409110e-02,
       -8.53753563e-03, -3.44672504e-04,  9.69576126e-03, -2.14194235e-02,
        2.28487617e-02,  1.70770404e-02, -1.02558046e-02, -3.80247182e-04,
        2.08103825e-02,  2.59130662e-04,  1.23528633e-02, -2.35200243e-02,
        8.27587831e-04,  1.08933941e-02,  2.33038226e-02,  3.79356438e-03,
       -5.40376795e-03,  2.20585133e-02,  1.71023318e-02, -1.54222686e-02,
        1.90119230e-02,  2.81611644e-03, -2.24472053e-02, -7.13150596e-03,
        2.24870213e-02,  1.17216626e-02,  2.32193839e-02,  2.09401871e-03,
        1.53981553e-02,  9.05776288e-03, -7.96129962e-03,  4.25565160e-03,
        2.17339188e-02,  1.76602143e-02,  1.60250479e-02, -1.04241434e-02,
       -5.75332006e-03, -1.45522363e-02, -4.15672887e-03, -6.90520564e-03,
        2.36017264e-04, -1.42145738e-02, -2.07062702e-02, -2.34691428e-02,
       -3.54477064e-03, -1.61242627e-02, -9.34147541e-03,  1.92521695e-03,
       -5.29131214e-03,  1.56499591e-02, -5.27533765e-03,  1.31622619e-02,
        4.33768544e-03, -1.83545479e-02,  2.75477456e-03, -1.56958672e-02,
        8.09299384e-03,  2.55505820e-02, -1.98860534e-02,  2.29007683e-02,
        2.53981881e-02, -2.90850897e-05, -1.39658571e-02, -1.91969264e-02,
       -9.08898464e-03, -2.24730610e-02,  2.07209349e-02,  1.43945216e-02,
       -1.16657052e-02,  8.01826304e-03,  2.28446123e-02, -3.81651950e-03,
       -9.55279158e-03,  1.07574749e-03,  1.97149812e-02, -1.13401195e-02,
        9.98148734e-03,  1.76883679e-02,  5.12109371e-03, -2.26347183e-02,
        1.00580587e-02, -9.00255514e-03,  1.17633933e-02, -7.91508573e-03,
        8.60907564e-03, -8.52965720e-03,  1.05970418e-02,  2.60450520e-03,
       -1.13629996e-02, -2.11468835e-02, -2.45323845e-03, -2.00201104e-02,
        1.89091234e-02, -8.36954863e-04, -1.39004608e-02,  1.97053765e-02,
        1.28010179e-03,  1.37749504e-02,  3.30848416e-05, -1.21075455e-03,
        7.55536806e-03,  2.20037147e-02,  1.36658953e-02,  1.24053198e-02,
        9.06333606e-03, -1.37912987e-02,  2.06269691e-02, -1.69778945e-02,
        2.56910328e-02, -1.62904715e-02, -2.04298610e-02,  3.75606843e-04,
       -4.51311190e-03,  2.17137137e-02, -2.30686759e-02,  6.06450872e-03,
        9.15812072e-03, -1.67001276e-03, -3.01856970e-03,  1.39491613e-02,
        2.56188286e-02,  2.33637038e-02, -7.63905978e-04,  7.83014694e-03,
        1.10760920e-02, -1.74343200e-02,  8.52025882e-03, -1.31295212e-02,
        1.74395370e-02, -6.12437926e-03, -1.53945097e-02, -3.19005477e-03,
       -5.96383584e-03, -6.58657306e-04, -7.25044415e-03, -1.92643173e-02,
        1.25887701e-02,  1.24289477e-02,  1.86883428e-02,  1.53064984e-02,
       -2.36253870e-03, -1.02546151e-02, -4.59673545e-03,  1.48739406e-02,
       -4.69176501e-04,  6.77654079e-03, -1.00270736e-02,  7.78544346e-03,
        2.19989603e-02, -1.12269739e-02,  1.59814015e-03,  7.28571236e-03,
       -2.03692310e-02,  1.12090258e-02,  1.57742658e-02,  1.50045323e-02,
       -1.58577237e-02,  1.32348202e-02,  1.24884786e-02,  2.01647528e-02,
        1.83940153e-02,  1.93128069e-03,  8.65370535e-03,  8.05353527e-03,
        1.84355564e-03,  6.13379728e-03,  1.83339570e-02,  4.21303944e-03,
       -1.57326259e-02, -7.73794818e-03, -1.86770824e-02, -1.10874839e-02,
        2.33635526e-02, -9.30258762e-03, -8.11491989e-03,  6.42458569e-03,
       -1.41057805e-02, -1.04641230e-02, -3.11262405e-03, -1.27540387e-02,
       -1.01910684e-02,  9.14405683e-03, -1.00511810e-02, -7.22374931e-03,
       -2.29910682e-02, -1.65254691e-02, -2.18183744e-02, -5.39826116e-03,
       -1.92141162e-02,  1.34400395e-02, -9.58697573e-03,  6.01306836e-03,
       -1.18676261e-02, -2.02207114e-03,  2.47411819e-03,  8.88180008e-03,
       -1.06288819e-03, -8.68986036e-03,  2.00550043e-02,  1.86070503e-02,
       -4.75422855e-03,  1.63923136e-02,  1.60579006e-02,  1.50755341e-02,
       -6.53731847e-03, -7.25467291e-03,  1.82583779e-02, -2.04563511e-02,
        1.28102109e-02,  1.56612825e-02, -2.31363416e-02,  9.20978792e-03,
       -9.54439400e-03,  2.47900769e-02, -2.25806223e-02, -2.29746806e-02,
       -1.13708098e-02,  1.89237221e-02,  6.62568536e-04,  4.03840816e-03,
        1.85778381e-02, -6.03161400e-03,  1.25212501e-02, -6.06411070e-03,
        4.69413302e-03,  1.90376644e-02, -1.99880600e-02, -1.08219067e-02,
       -2.32356906e-02, -9.83436728e-03, -2.10966326e-02, -1.88507565e-02,
        2.96815808e-03,  1.66935789e-02,  4.03474004e-03,  1.08176785e-02,
       -1.82980005e-03, -1.50389104e-02,  3.86278101e-03, -6.78195385e-03,
        1.61999632e-02,  2.45175539e-03,  2.23542424e-02,  1.36206054e-02]), array([[ 0.01743265,  0.03574792,  0.03829991, ...,  0.03515163,
         0.03120084, -0.00145971],
       [-0.02773346,  0.03386767,  0.01725305, ..., -0.00990926,
         0.00452499,  0.03765292],
       [-0.02571684,  0.04855113,  0.01583548, ...,  0.03358723,
        -0.01602521,  0.00575782],
       ...,
       [ 0.02479889,  0.03659144, -0.04138626, ...,  0.00907115,
        -0.0307679 ,  0.00069515],
       [-0.03639841, -0.01674224,  0.04357603, ...,  0.04124292,
        -0.00619265, -0.00567942],
       [ 0.04754899,  0.05012858, -0.00616785, ...,  0.04252779,
         0.03371186,  0.00434686]]), array([ 0.01649539,  0.04222381,  0.03720581, -0.00791149,  0.01827872,
        0.03161272, -0.02083105, -0.03443013, -0.00739245,  0.03901338,
        0.03956888, -0.01485338,  0.03805213,  0.05117167, -0.0323668 ,
        0.02322577, -0.03100651, -0.02828962, -0.00998854, -0.02829712,
        0.02000421,  0.04594349, -0.03517803, -0.0116804 ,  0.00089087,
       -0.00579363, -0.01261374,  0.01268401,  0.04404555, -0.03403043,
       -0.00704765,  0.00429505, -0.00986592,  0.01765051,  0.01056988,
       -0.02339175, -0.01394011,  0.03869721,  0.04924018,  0.03492072,
        0.01512277,  0.00291157, -0.04585698,  0.01968237,  0.02217802,
        0.03505182, -0.04657021, -0.04174285, -0.02589423, -0.01346776,
       -0.0437848 ,  0.00940615, -0.02875463, -0.01041299, -0.04492193,
       -0.00466089, -0.0285192 , -0.03528462, -0.01693043, -0.0159506 ,
       -0.00210871,  0.05144605, -0.0464853 ,  0.04013365,  0.01072956,
        0.04809559, -0.00664326,  0.01540635, -0.02914127, -0.01342896,
        0.03208387, -0.00554823, -0.02392421, -0.00332068,  0.01944962,
        0.02324413, -0.03141412,  0.02899281, -0.02644615, -0.00467403,
       -0.0415236 ,  0.02109134,  0.0169496 , -0.04388226, -0.03194264,
        0.00763454, -0.03295384,  0.02738924,  0.02063077,  0.02938986,
        0.02595494,  0.03252595, -0.00940707,  0.00339335, -0.03021726,
        0.03595549,  0.0297906 ,  0.02456188,  0.01919257, -0.02622961,
        0.04400209,  0.00709774,  0.01817992, -0.04575882,  0.00936724,
       -0.0229212 , -0.02399611,  0.02387994,  0.04531022, -0.01738047,
        0.05044916,  0.00555353,  0.02678624, -0.01782268,  0.01344574,
       -0.01430032, -0.00615615, -0.01515005, -0.00944543,  0.01670421,
       -0.00759554,  0.02523257, -0.01461824, -0.01486858,  0.00923702,
        0.01322631, -0.04273309,  0.04191233,  0.00052072, -0.03591662,
        0.03670882,  0.04856555,  0.04674001, -0.00643861, -0.03192342,
       -0.04499947, -0.02105792, -0.03044498,  0.02952658,  0.02771167,
       -0.02222796, -0.01539739, -0.02983024, -0.03257863, -0.01028237,
       -0.02298154,  0.04041926, -0.04665717,  0.00455326, -0.00035964,
        0.04323036, -0.01917439,  0.02677079, -0.04938618, -0.00215998,
        0.04653467, -0.02076935,  0.0008489 ,  0.0005727 ,  0.02948471,
       -0.00235607,  0.03003603, -0.02172341, -0.04448601, -0.04820839,
        0.05006206, -0.01877626,  0.02381038, -0.04681821,  0.00712889,
        0.04352189,  0.03076512, -0.00819087,  0.02248846,  0.0198921 ,
        0.00087101, -0.00341829, -0.04741035,  0.04760739, -0.01419426,
        0.02733781,  0.04296944,  0.03596263,  0.00084153, -0.00698082,
        0.01173208,  0.02652568,  0.01352721,  0.04487894,  0.00555094,
       -0.03114937, -0.02079084]), array([[0., 0., 0., ..., 0., 0., 0.],
       [0., 0., 0., ..., 0., 0., 0.],
       [0., 0., 0., ..., 0., 0., 0.],
       ...,
       [0., 0., 0., ..., 0., 0., 0.],
       [0., 0., 0., ..., 0., 0., 0.],
       [0., 0., 0., ..., 0., 0., 0.]]), array([0.00039216, 0.0009901 , 0.00039216, 0.00039216, 0.0009901 ,
       0.00039216, 0.00244585, 0.00039216, 0.00039216, 0.0009901 ])]